<?xml version="1.0"?>
<opencv_storage>
<cascade>
  <stageType>BOOST</stageType>
  <featureType>HAAR</featureType>
  <height>24</height>
  <width>24</width>
  <stageParams>
    <boostType>GAB</boostType>
    <minHitRate>9.9500000476837158e-01</minHitRate>
    <maxFalseAlarm>5.0000000000000000e-01</maxFalseAlarm>
    <weightTrimRate>9.4999998807907104e-01</weightTrimRate>
    <maxDepth>1</maxDepth>
    <maxWeakCount>100</maxWeakCount></stageParams>
  <featureParams>
    <maxCatCount>0</maxCatCount>
    <featSize>1</featSize>
    <mode>BASIC</mode></featureParams>
  <stageNum>9</stageNum>
  <stages>
    <!-- stage 0 -->
    <_>
      <maxWeakCount>3</maxWeakCount>
      <stageThreshold>-1.4984692335128784e+00</stageThreshold>
      <weakClassifiers>
        <_>
          <internalNodes>
            0 -1 13 -4.9433387815952301e-02</internalNodes>
          <leafValues>
            4.6153846383094788e-01 -9.7808766365051270e-01</leafValues></_>
        <_>
          <internalNodes>
            0 -1 29 -2.3967094719409943e-02</internalNodes>
          <leafValues>
            3.5817515850067139e-01 -9.4233262538909912e-01</leafValues></_>
        <_>
          <internalNodes>
            0 -1 4 3.3503852784633636e-02</internalNodes>
          <leafValues>
            -8.7855678796768188e-01 8.0331331491470337e-01</leafValues></_></weakClassifiers></_>
    <!-- stage 1 -->
    <_>
      <maxWeakCount>3</maxWeakCount>
      <stageThreshold>-1.5905563831329346e+00</stageThreshold>
      <weakClassifiers>
        <_>
          <internalNodes>
            0 -1 16 4.3230257928371429e-02</internalNodes>
          <leafValues>
            -9.6993988752365112e-01 -6.2500000000000000e-02</leafValues></_>
        <_>
          <internalNodes>
            0 -1 10 2.1877744793891907e-01</internalNodes>
          <leafValues>
            -9.2943942546844482e-01 2.0414884388446808e-01</leafValues></_>
        <_>
          <internalNodes>
            0 -1 3 -1.6245026141405106e-02</internalNodes>
          <leafValues>
            6.6406315565109253e-01 -8.2476532459259033e-01</leafValues></_></weakClassifiers></_>
    <!-- stage 2 -->
    <_>
      <maxWeakCount>4</maxWeakCount>
      <stageThreshold>-1.9559251070022583e+00</stageThreshold>
      <weakClassifiers>
        <_>
          <internalNodes>
            0 -1 28 5.7316128164529800e-02</internalNodes>
          <leafValues>
            -9.5312500000000000e-01 1.</leafValues></_>
        <_>
          <internalNodes>
            0 -1 21 -4.5821916311979294e-02</internalNodes>
          <leafValues>
            3.4855458140373230e-01 -8.9255082607269287e-01</leafValues></_>
        <_>
          <internalNodes>
            0 -1 19 1.3240989297628403e-02</internalNodes>
          <leafValues>
            -7.5158971548080444e-01 4.6021074056625366e-01</leafValues></_>
        <_>
          <internalNodes>
            0 -1 31 6.0213361866772175e-03</internalNodes>
          <leafValues>
            -5.7046002149581909e-01 6.4318537712097168e-01</leafValues></_></weakClassifiers></_>
    <!-- stage 3 -->
    <_>
      <maxWeakCount>4</maxWeakCount>
      <stageThreshold>-2.1711497306823730e+00</stageThreshold>
      <weakClassifiers>
        <_>
          <internalNodes>
            0 -1 11 -6.6225051879882813e-02</internalNodes>
          <leafValues>
            -7.1428574621677399e-02 -9.6606785058975220e-01</leafValues></_>
        <_>
          <internalNodes>
            0 -1 24 1.8684137612581253e-02</internalNodes>
          <leafValues>
            -8.6319392919540405e-01 1.9513119757175446e-01</leafValues></_>
        <_>
          <internalNodes>
            0 -1 17 -3.8718909025192261e-02</internalNodes>
          <leafValues>
            4.4991350173950195e-01 -6.8007111549377441e-01</leafValues></_>
        <_>
          <internalNodes>
            0 -1 7 -7.8211463987827301e-03</internalNodes>
          <leafValues>
            4.4983601570129395e-01 -7.9180151224136353e-01</leafValues></_></weakClassifiers></_>
    <!-- stage 4 -->
    <_>
      <maxWeakCount>4</maxWeakCount>
      <stageThreshold>-2.2613208293914795e+00</stageThreshold>
      <weakClassifiers>
        <_>
          <internalNodes>
            0 -1 15 -7.0249959826469421e-02</internalNodes>
          <leafValues>
            -4.0000000596046448e-01 -9.6363633871078491e-01</leafValues></_>
        <_>
          <internalNodes>
            0 -1 22 3.0731372535228729e-02</internalNodes>
          <leafValues>
            -8.7671798467636108e-01 6.7153595387935638e-02</leafValues></_>
        <_>
          <internalNodes>
            0 -1 23 1.8574303016066551e-02</internalNodes>
          <leafValues>
            -7.4401664733886719e-01 2.8846582770347595e-01</leafValues></_>
        <_>
          <internalNodes>
            0 -1 2 -5.0642783753573895e-03</internalNodes>
          <leafValues>
            3.2305020093917847e-01 -9.0541237592697144e-01</leafValues></_></weakClassifiers></_>
    <!-- stage 5 -->
    <_>
      <maxWeakCount>4</maxWeakCount>
      <stageThreshold>-2.2166540622711182e+00</stageThreshold>
      <weakClassifiers>
        <_>
          <internalNodes>
            0 -1 27 1.7702866345643997e-02</internalNodes>
          <leafValues>
            -9.5983934402465820e-01 -4.1176471114158630e-01</leafValues></_>
        <_>
          <internalNodes>
            0 -1 9 2.6705068349838257e-01</internalNodes>
          <leafValues>
            -8.7799209356307983e-01 4.7108903527259827e-04</leafValues></_>
        <_>
          <internalNodes>
            0 -1 23 1.8566966056823730e-02</internalNodes>
          <leafValues>
            -7.3760211467742920e-01 1.8999683856964111e-01</leafValues></_>
        <_>
          <internalNodes>
            0 -1 30 2.2978507913649082e-03</internalNodes>
          <leafValues>
            -5.6881934404373169e-01 5.4761654138565063e-01</leafValues></_></weakClassifiers></_>
    <!-- stage 6 -->
    <_>
      <maxWeakCount>4</maxWeakCount>
      <stageThreshold>-2.1010980606079102e+00</stageThreshold>
      <weakClassifiers>
        <_>
          <internalNodes>
            0 -1 1 4.3272286653518677e-02</internalNodes>
          <leafValues>
            -9.4741964340209961e-01 1.</leafValues></_>
        <_>
          <internalNodes>
            0 -1 18 5.2842371165752411e-02</internalNodes>
          <leafValues>
            -8.7082600593566895e-01 -5.2520643919706345e-02</leafValues></_>
        <_>
          <internalNodes>
            0 -1 26 -2.6802750304341316e-02</internalNodes>
          <leafValues>
            3.3646976947784424e-01 -6.1984568834304810e-01</leafValues></_>
        <_>
          <internalNodes>
            0 -1 6 -3.4501816844567657e-04</internalNodes>
          <leafValues>
            3.3699339628219604e-01 -8.1221073865890503e-01</leafValues></_></weakClassifiers></_>
    <!-- stage 7 -->
    <_>
      <maxWeakCount>4</maxWeakCount>
      <stageThreshold>-1.8056182861328125e+00</stageThreshold>
      <weakClassifiers>
        <_>
          <internalNodes>
            0 -1 0 1.4723786711692810e-01</internalNodes>
          <leafValues>
            -9.5112413167953491e-01 4.2857143282890320e-01</leafValues></_>
        <_>
          <internalNodes>
            0 -1 22 3.0663453042507172e-02</internalNodes>
          <leafValues>
            -8.7657129764556885e-01 1.4218973927199841e-02</leafValues></_>
        <_>
          <internalNodes>
            0 -1 5 8.9853256940841675e-03</internalNodes>
          <leafValues>
            5.8382373303174973e-02 -8.7140053510665894e-01</leafValues></_>
        <_>
          <internalNodes>
            0 -1 14 7.3281275108456612e-03</internalNodes>
          <leafValues>
            -9.2709553241729736e-01 2.0219792425632477e-01</leafValues></_></weakClassifiers></_>
    <!-- stage 8 -->
    <_>
      <maxWeakCount>4</maxWeakCount>
      <stageThreshold>-2.1242110729217529e+00</stageThreshold>
      <weakClassifiers>
        <_>
          <internalNodes>
            0 -1 8 -3.1464450061321259e-02</internalNodes>
          <leafValues>
            4.2857143282890320e-01 -9.5112413167953491e-01</leafValues></_>
        <_>
          <internalNodes>
            0 -1 20 -1.0352173820137978e-02</internalNodes>
          <leafValues>
            -5.2378024905920029e-02 -8.8073468208312988e-01</leafValues></_>
        <_>
          <internalNodes>
            0 -1 12 2.3994255810976028e-02</internalNodes>
          <leafValues>
            -7.1887797117233276e-01 2.9126471281051636e-01</leafValues></_>
        <_>
          <internalNodes>
            0 -1 25 -3.0655410140752792e-02</internalNodes>
          <leafValues>
            5.3562653064727783e-01 -5.8361703157424927e-01</leafValues></_></weakClassifiers></_></stages>
  <features>
    <_>
      <rects>
        <_>
          0 1 14 8 -1.</_>
        <_>
          0 1 7 4 2.</_>
        <_>
          7 5 7 4 2.</_></rects>
      <tilted>0</tilted></_>
    <_>
      <rects>
        <_>
          0 4 6 6 -1.</_>
        <_>
          2 4 2 6 3.</_></rects>
      <tilted>0</tilted></_>
    <_>
      <rects>
        <_>
          0 6 9 3 -1.</_>
        <_>
          3 6 3 3 3.</_></rects>
      <tilted>0</tilted></_>
    <_>
      <rects>
        <_>
          0 10 6 6 -1.</_>
        <_>
          2 10 2 6 3.</_></rects>
      <tilted>0</tilted></_>
    <_>
      <rects>
        <_>
          1 1 12 6 -1.</_>
        <_>
          1 1 6 3 2.</_>
        <_>
          7 4 6 3 2.</_></rects>
      <tilted>0</tilted></_>
    <_>
      <rects>
        <_>
          2 9 22 6 -1.</_>
        <_>
          2 9 11 3 2.</_>
        <_>
          13 12 11 3 2.</_></rects>
      <tilted>0</tilted></_>
    <_>
      <rects>
        <_>
          2 17 8 2 -1.</_>
        <_>
          2 17 4 1 2.</_>
        <_>
          6 18 4 1 2.</_></rects>
      <tilted>0</tilted></_>
    <_>
      <rects>
        <_>
          3 1 6 6 -1.</_>
        <_>
          3 3 6 2 3.</_></rects>
      <tilted>0</tilted></_>
    <_>
      <rects>
        <_>
          3 3 4 10 -1.</_>
        <_>
          5 3 2 10 2.</_></rects>
      <tilted>0</tilted></_>
    <_>
      <rects>
        <_>
          5 2 14 18 -1.</_>
        <_>
          5 11 14 9 2.</_></rects>
      <tilted>0</tilted></_>
    <_>
      <rects>
        <_>
          5 6 16 18 -1.</_>
        <_>
          5 12 16 6 3.</_></rects>
      <tilted>0</tilted></_>
    <_>
      <rects>
        <_>
          5 8 14 6 -1.</_>
        <_>
          5 10 14 2 3.</_></rects>
      <tilted>0</tilted></_>
    <_>
      <rects>
        <_>
          6 0 4 10 -1.</_>
        <_>
          6 5 4 5 2.</_></rects>
      <tilted>0</tilted></_>
    <_>
      <rects>
        <_>
          6 0 12 4 -1.</_>
        <_>
          6 2 12 2 2.</_></rects>
      <tilted>0</tilted></_>
    <_>
      <rects>
        <_>
          6 2 12 11 -1.</_>
        <_>
          10 2 4 11 3.</_></rects>
      <tilted>0</tilted></_>
    <_>
      <rects>
        <_>
          6 8 14 6 -1.</_>
        <_>
          6 10 14 2 3.</_></rects>
      <tilted>0</tilted></_>
    <_>
      <rects>
        <_>
          6 10 12 4 -1.</_>
        <_>
          6 12 12 2 2.</_></rects>
      <tilted>0</tilted></_>
    <_>
      <rects>
        <_>
          8 18 10 6 -1.</_>
        <_>
          8 21 10 3 2.</_></rects>
      <tilted>0</tilted></_>
    <_>
      <rects>
        <_>
          9 1 5 10 -1.</_>
        <_>
          9 6 5 5 2.</_></rects>
      <tilted>0</tilted></_>
    <_>
      <rects>
        <_>
          9 9 6 6 -1.</_>
        <_>
          11 9 2 6 3.</_></rects>
      <tilted>0</tilted></_>
    <_>
      <rects>
        <_>
          11 0 9 2 -1.</_>
        <_>
          11 1 9 1 2.</_></rects>
      <tilted>0</tilted></_>
    <_>
      <rects>
        <_>
          11 2 12 6 -1.</_>
        <_>
          11 2 6 3 2.</_>
        <_>
          17 5 6 3 2.</_></rects>
      <tilted>0</tilted></_>
    <_>
      <rects>
        <_>
          15 1 8 3 -1.</_>
        <_>
          19 1 4 3 2.</_></rects>
      <tilted>0</tilted></_>
    <_>
      <rects>
        <_>
          15 9 5 6 -1.</_>
        <_>
          15 12 5 3 2.</_></rects>
      <tilted>0</tilted></_>
    <_>
      <rects>
        <_>
          16 0 8 4 -1.</_>
        <_>
          16 0 4 2 2.</_>
        <_>
          20 2 4 2 2.</_></rects>
      <tilted>0</tilted></_>
    <_>
      <rects>
        <_>
          17 0 5 6 -1.</_>
        <_>
          17 3 5 3 2.</_></rects>
      <tilted>0</tilted></_>
    <_>
      <rects>
        <_>
          17 3 6 12 -1.</_>
        <_>
          17 3 3 6 2.</_>
        <_>
          20 9 3 6 2.</_></rects>
      <tilted>0</tilted></_>
    <_>
      <rects>
        <_>
          18 0 4 6 -1.</_>
        <_>
          18 0 2 3 2.</_>
        <_>
          20 3 2 3 2.</_></rects>
      <tilted>0</tilted></_>
    <_>
      <rects>
        <_>
          18 3 4 12 -1.</_>
        <_>
          20 3 2 12 2.</_></rects>
      <tilted>0</tilted></_>
    <_>
      <rects>
        <_>
          18 6 6 10 -1.</_>
        <_>
          20 6 2 10 3.</_></rects>
      <tilted>0</tilted></_>
    <_>
      <rects>
        <_>
          18 18 2 6 -1.</_>
        <_>
          19 18 1 6 2.</_></rects>
      <tilted>0</tilted></_>
    <_>
      <rects>
        <_>
          22 4 2 6 -1.</_>
        <_>
          23 4 1 6 2.</_></rects>
      <tilted>0</tilted></_></features></cascade>
</opencv_storage>
