<?xml version="1.0"?>
<opencv_storage>
<cascade>
  <stageType>BOOST</stageType>
  <featureType>HAAR</featureType>
  <height>24</height>
  <width>24</width>
  <stageParams>
    <boostType>GAB</boostType>
    <minHitRate>9.9500000476837158e-01</minHitRate>
    <maxFalseAlarm>5.0000000000000000e-01</maxFalseAlarm>
    <weightTrimRate>9.4999998807907104e-01</weightTrimRate>
    <maxDepth>1</maxDepth>
    <maxWeakCount>100</maxWeakCount></stageParams>
  <featureParams>
    <maxCatCount>0</maxCatCount>
    <featSize>1</featSize>
    <mode>BASIC</mode></featureParams>
  <stageNum>11</stageNum>
  <stages>
    <!-- stage 0 -->
    <_>
      <maxWeakCount>4</maxWeakCount>
      <stageThreshold>-2.0917904376983643e+00</stageThreshold>
      <weakClassifiers>
        <_>
          <internalNodes>
            0 -1 8 3.9120189845561981e-02</internalNodes>
          <leafValues>
            -9.5983934402465820e-01 3.5135135054588318e-01</leafValues></_>
        <_>
          <internalNodes>
            0 -1 38 -2.2297821938991547e-02</internalNodes>
          <leafValues>
            4.8036625981330872e-01 -8.6627459526062012e-01</leafValues></_>
        <_>
          <internalNodes>
            0 -1 24 4.4643087312579155e-03</internalNodes>
          <leafValues>
            -8.1158745288848877e-01 5.5975449085235596e-01</leafValues></_>
        <_>
          <internalNodes>
            0 -1 36 -4.9533629789948463e-03</internalNodes>
          <leafValues>
            5.6383830308914185e-01 -7.6527971029281616e-01</leafValues></_></weakClassifiers></_>
    <!-- stage 1 -->
    <_>
      <maxWeakCount>4</maxWeakCount>
      <stageThreshold>-2.0867600440979004e+00</stageThreshold>
      <weakClassifiers>
        <_>
          <internalNodes>
            0 -1 16 -3.5714797675609589e-02</internalNodes>
          <leafValues>
            3.5483869910240173e-01 -9.4444441795349121e-01</leafValues></_>
        <_>
          <internalNodes>
            0 -1 23 -3.0937731266021729e-02</internalNodes>
          <leafValues>
            2.7307352423667908e-01 -8.8291651010513306e-01</leafValues></_>
        <_>
          <internalNodes>
            0 -1 42 2.2842504084110260e-02</internalNodes>
          <leafValues>
            -7.4682086706161499e-01 5.7879191637039185e-01</leafValues></_>
        <_>
          <internalNodes>
            0 -1 30 2.1473970264196396e-04</internalNodes>
          <leafValues>
            -8.1413561105728149e-01 4.8742190003395081e-01</leafValues></_></weakClassifiers></_>
    <!-- stage 2 -->
    <_>
      <maxWeakCount>3</maxWeakCount>
      <stageThreshold>-1.4929938316345215e+00</stageThreshold>
      <weakClassifiers>
        <_>
          <internalNodes>
            0 -1 9 5.8253496885299683e-02</internalNodes>
          <leafValues>
            -9.5348834991455078e-01 1.6049382090568542e-01</leafValues></_>
        <_>
          <internalNodes>
            0 -1 4 -4.1025169193744659e-02</internalNodes>
          <leafValues>
            3.6205139756202698e-01 -8.3762091398239136e-01</leafValues></_>
        <_>
          <internalNodes>
            0 -1 34 1.0386887006461620e-02</internalNodes>
          <leafValues>
            -9.0155690908432007e-01 3.2266491651535034e-01</leafValues></_></weakClassifiers></_>
    <!-- stage 3 -->
    <_>
      <maxWeakCount>4</maxWeakCount>
      <stageThreshold>-2.0925316810607910e+00</stageThreshold>
      <weakClassifiers>
        <_>
          <internalNodes>
            0 -1 18 -4.9190029501914978e-02</internalNodes>
          <leafValues>
            4.3478261679410934e-02 -9.5501023530960083e-01</leafValues></_>
        <_>
          <internalNodes>
            0 -1 39 -2.9709434602409601e-03</internalNodes>
          <leafValues>
            3.2456001639366150e-01 -8.7578964233398438e-01</leafValues></_>
        <_>
          <internalNodes>
            0 -1 32 -2.2546442225575447e-02</internalNodes>
          <leafValues>
            5.7766932249069214e-01 -7.7719146013259888e-01</leafValues></_>
        <_>
          <internalNodes>
            0 -1 22 -3.9127683266997337e-03</internalNodes>
          <leafValues>
            5.1545959711074829e-01 -6.4239239692687988e-01</leafValues></_></weakClassifiers></_>
    <!-- stage 4 -->
    <_>
      <maxWeakCount>4</maxWeakCount>
      <stageThreshold>-2.0381829738616943e+00</stageThreshold>
      <weakClassifiers>
        <_>
          <internalNodes>
            0 -1 7 3.0796013772487640e-02</internalNodes>
          <leafValues>
            -9.5097035169601440e-01 1.0989011265337467e-02</leafValues></_>
        <_>
          <internalNodes>
            0 -1 12 -4.7192111611366272e-02</internalNodes>
          <leafValues>
            3.5798603296279907e-01 -8.0036550760269165e-01</leafValues></_>
        <_>
          <internalNodes>
            0 -1 45 -2.0227737724781036e-02</internalNodes>
          <leafValues>
            6.1787271499633789e-01 -6.0372346639633179e-01</leafValues></_>
        <_>
          <internalNodes>
            0 -1 31 -1.0045922826975584e-03</internalNodes>
          <leafValues>
            3.1687644124031067e-01 -9.0985047817230225e-01</leafValues></_></weakClassifiers></_>
    <!-- stage 5 -->
    <_>
      <maxWeakCount>4</maxWeakCount>
      <stageThreshold>-2.0860486030578613e+00</stageThreshold>
      <weakClassifiers>
        <_>
          <internalNodes>
            0 -1 11 -1.1097541451454163e-01</internalNodes>
          <leafValues>
            -8.1081077456474304e-02 -9.6037536859512329e-01</leafValues></_>
        <_>
          <internalNodes>
            0 -1 23 -3.0884757637977600e-02</internalNodes>
          <leafValues>
            2.4535699188709259e-01 -8.7147283554077148e-01</leafValues></_>
        <_>
          <internalNodes>
            0 -1 5 -4.1217468678951263e-02</internalNodes>
          <leafValues>
            5.9582823514938354e-01 -6.5076720714569092e-01</leafValues></_>
        <_>
          <internalNodes>
            0 -1 40 2.4970159865915775e-03</internalNodes>
          <leafValues>
            -7.1742182970046997e-01 3.9656671881675720e-01</leafValues></_></weakClassifiers></_>
    <!-- stage 6 -->
    <_>
      <maxWeakCount>4</maxWeakCount>
      <stageThreshold>-1.9367289543151855e+00</stageThreshold>
      <weakClassifiers>
        <_>
          <internalNodes>
            0 -1 17 -4.9419716000556946e-02</internalNodes>
          <leafValues>
            -1.7857143282890320e-01 -9.4989562034606934e-01</leafValues></_>
        <_>
          <internalNodes>
            0 -1 6 7.1079969406127930e-02</internalNodes>
          <leafValues>
            -7.8478223085403442e-01 3.9887556433677673e-01</leafValues></_>
        <_>
          <internalNodes>
            0 -1 41 -1.7494322732090950e-02</internalNodes>
          <leafValues>
            5.4667770862579346e-01 -6.1286985874176025e-01</leafValues></_>
        <_>
          <internalNodes>
            0 -1 37 3.0962307006120682e-02</internalNodes>
          <leafValues>
            -3.6050552129745483e-01 6.6251736879348755e-01</leafValues></_></weakClassifiers></_>
    <!-- stage 7 -->
    <_>
      <maxWeakCount>5</maxWeakCount>
      <stageThreshold>-1.9195061922073364e+00</stageThreshold>
      <weakClassifiers>
        <_>
          <internalNodes>
            0 -1 3 -4.3226316571235657e-02</internalNodes>
          <leafValues>
            -3.3870968222618103e-01 -9.3868923187255859e-01</leafValues></_>
        <_>
          <internalNodes>
            0 -1 28 -5.3630702197551727e-02</internalNodes>
          <leafValues>
            1.9132643938064575e-01 -8.0052113533020020e-01</leafValues></_>
        <_>
          <internalNodes>
            0 -1 19 -2.9356041923165321e-03</internalNodes>
          <leafValues>
            2.6611572504043579e-01 -7.6362615823745728e-01</leafValues></_>
        <_>
          <internalNodes>
            0 -1 13 1.0633962228894234e-02</internalNodes>
          <leafValues>
            -7.3746293783187866e-01 3.5132464766502380e-01</leafValues></_>
        <_>
          <internalNodes>
            0 -1 15 1.0651450138539076e-03</internalNodes>
          <leafValues>
            3.0002751946449280e-01 -7.9773616790771484e-01</leafValues></_></weakClassifiers></_>
    <!-- stage 8 -->
    <_>
      <maxWeakCount>6</maxWeakCount>
      <stageThreshold>-2.0748677253723145e+00</stageThreshold>
      <weakClassifiers>
        <_>
          <internalNodes>
            0 -1 0 -4.4010572135448456e-02</internalNodes>
          <leafValues>
            3.0769231915473938e-01 -8.9846742153167725e-01</leafValues></_>
        <_>
          <internalNodes>
            0 -1 11 -1.1068870127201080e-01</internalNodes>
          <leafValues>
            2.0306521654129028e-01 -7.9464077949523926e-01</leafValues></_>
        <_>
          <internalNodes>
            0 -1 35 -6.4639486372470856e-03</internalNodes>
          <leafValues>
            1.9289544224739075e-01 -8.5032933950424194e-01</leafValues></_>
        <_>
          <internalNodes>
            0 -1 44 7.5674608349800110e-02</internalNodes>
          <leafValues>
            -3.8615787029266357e-01 6.7081636190414429e-01</leafValues></_>
        <_>
          <internalNodes>
            0 -1 20 -1.1273156851530075e-02</internalNodes>
          <leafValues>
            5.3860861063003540e-01 -4.9965766072273254e-01</leafValues></_>
        <_>
          <internalNodes>
            0 -1 25 -7.5718463631346822e-04</internalNodes>
          <leafValues>
            -9.4185799360275269e-01 3.1116062402725220e-01</leafValues></_></weakClassifiers></_>
    <!-- stage 9 -->
    <_>
      <maxWeakCount>5</maxWeakCount>
      <stageThreshold>-1.6372652053833008e+00</stageThreshold>
      <weakClassifiers>
        <_>
          <internalNodes>
            0 -1 27 -3.6483190953731537e-02</internalNodes>
          <leafValues>
            -4.7540983557701111e-01 -9.5039457082748413e-01</leafValues></_>
        <_>
          <internalNodes>
            0 -1 28 -5.2470408380031586e-02</internalNodes>
          <leafValues>
            1.0223841667175293e-01 -7.8745657205581665e-01</leafValues></_>
        <_>
          <internalNodes>
            0 -1 14 9.2889014631509781e-03</internalNodes>
          <leafValues>
            -5.4093015193939209e-01 3.8300520181655884e-01</leafValues></_>
        <_>
          <internalNodes>
            0 -1 2 -5.8494184166193008e-02</internalNodes>
          <leafValues>
            5.2310508489608765e-01 -5.0411719083786011e-01</leafValues></_>
        <_>
          <internalNodes>
            0 -1 26 1.7883875407278538e-03</internalNodes>
          <leafValues>
            2.5593832135200500e-01 -9.0595430135726929e-01</leafValues></_></weakClassifiers></_>
    <!-- stage 10 -->
    <_>
      <maxWeakCount>6</maxWeakCount>
      <stageThreshold>-1.7838575839996338e+00</stageThreshold>
      <weakClassifiers>
        <_>
          <internalNodes>
            0 -1 10 2.8301544487476349e-02</internalNodes>
          <leafValues>
            -9.4951921701431274e-01 -5.8823531866073608e-01</leafValues></_>
        <_>
          <internalNodes>
            0 -1 43 -1.5265185385942459e-02</internalNodes>
          <leafValues>
            5.5196764878928661e-03 -7.5229197740554810e-01</leafValues></_>
        <_>
          <internalNodes>
            0 -1 21 3.0112102627754211e-02</internalNodes>
          <leafValues>
            -6.3441687822341919e-01 2.8060540556907654e-01</leafValues></_>
        <_>
          <internalNodes>
            0 -1 1 1.6888494137674570e-03</internalNodes>
          <leafValues>
            2.1100604534149170e-01 -8.7899649143218994e-01</leafValues></_>
        <_>
          <internalNodes>
            0 -1 29 3.8295646663755178e-04</internalNodes>
          <leafValues>
            2.2730840742588043e-01 -8.3108174800872803e-01</leafValues></_>
        <_>
          <internalNodes>
            0 -1 33 1.2983228079974651e-03</internalNodes>
          <leafValues>
            -7.2542101144790649e-01 2.5742390751838684e-01</leafValues></_></weakClassifiers></_></stages>
  <features>
    <_>
      <rects>
        <_>
          0 1 2 23 -1.</_>
        <_>
          1 1 1 23 2.</_></rects>
      <tilted>0</tilted></_>
    <_>
      <rects>
        <_>
          0 2 1 9 -1.</_>
        <_>
          0 5 1 3 3.</_></rects>
      <tilted>0</tilted></_>
    <_>
      <rects>
        <_>
          0 2 6 22 -1.</_>
        <_>
          3 2 3 22 2.</_></rects>
      <tilted>0</tilted></_>
    <_>
      <rects>
        <_>
          0 3 10 3 -1.</_>
        <_>
          5 3 5 3 2.</_></rects>
      <tilted>0</tilted></_>
    <_>
      <rects>
        <_>
          0 4 6 10 -1.</_>
        <_>
          3 4 3 10 2.</_></rects>
      <tilted>0</tilted></_>
    <_>
      <rects>
        <_>
          0 5 9 5 -1.</_>
        <_>
          3 5 3 5 3.</_></rects>
      <tilted>0</tilted></_>
    <_>
      <rects>
        <_>
          2 1 12 8 -1.</_>
        <_>
          2 1 6 4 2.</_>
        <_>
          8 5 6 4 2.</_></rects>
      <tilted>0</tilted></_>
    <_>
      <rects>
        <_>
          2 3 8 6 -1.</_>
        <_>
          2 3 4 3 2.</_>
        <_>
          6 6 4 3 2.</_></rects>
      <tilted>0</tilted></_>
    <_>
      <rects>
        <_>
          3 1 8 8 -1.</_>
        <_>
          3 1 4 4 2.</_>
        <_>
          7 5 4 4 2.</_></rects>
      <tilted>0</tilted></_>
    <_>
      <rects>
        <_>
          3 1 10 8 -1.</_>
        <_>
          3 1 5 4 2.</_>
        <_>
          8 5 5 4 2.</_></rects>
      <tilted>0</tilted></_>
    <_>
      <rects>
        <_>
          3 2 6 8 -1.</_>
        <_>
          3 2 3 4 2.</_>
        <_>
          6 6 3 4 2.</_></rects>
      <tilted>0</tilted></_>
    <_>
      <rects>
        <_>
          4 0 16 9 -1.</_>
        <_>
          4 3 16 3 3.</_></rects>
      <tilted>0</tilted></_>
    <_>
      <rects>
        <_>
          5 0 13 4 -1.</_>
        <_>
          5 2 13 2 2.</_></rects>
      <tilted>0</tilted></_>
    <_>
      <rects>
        <_>
          5 5 2 12 -1.</_>
        <_>
          5 11 2 6 2.</_></rects>
      <tilted>0</tilted></_>
    <_>
      <rects>
        <_>
          5 11 13 3 -1.</_>
        <_>
          5 12 13 1 3.</_></rects>
      <tilted>0</tilted></_>
    <_>
      <rects>
        <_>
          6 0 6 5 -1.</_>
        <_>
          8 0 2 5 3.</_></rects>
      <tilted>0</tilted></_>
    <_>
      <rects>
        <_>
          6 0 3 9 -1.</_>
        <_>
          6 3 3 3 3.</_></rects>
      <tilted>0</tilted></_>
    <_>
      <rects>
        <_>
          6 0 12 4 -1.</_>
        <_>
          6 2 12 2 2.</_></rects>
      <tilted>0</tilted></_>
    <_>
      <rects>
        <_>
          6 0 13 4 -1.</_>
        <_>
          6 2 13 2 2.</_></rects>
      <tilted>0</tilted></_>
    <_>
      <rects>
        <_>
          6 4 4 8 -1.</_>
        <_>
          6 4 2 4 2.</_>
        <_>
          8 8 2 4 2.</_></rects>
      <tilted>0</tilted></_>
    <_>
      <rects>
        <_>
          6 9 12 3 -1.</_>
        <_>
          6 10 12 1 3.</_></rects>
      <tilted>0</tilted></_>
    <_>
      <rects>
        <_>
          7 3 14 9 -1.</_>
        <_>
          7 6 14 3 3.</_></rects>
      <tilted>0</tilted></_>
    <_>
      <rects>
        <_>
          8 0 9 3 -1.</_>
        <_>
          8 1 9 1 3.</_></rects>
      <tilted>0</tilted></_>
    <_>
      <rects>
        <_>
          8 7 10 6 -1.</_>
        <_>
          8 9 10 2 3.</_></rects>
      <tilted>0</tilted></_>
    <_>
      <rects>
        <_>
          8 10 3 4 -1.</_>
        <_>
          8 12 3 2 2.</_></rects>
      <tilted>0</tilted></_>
    <_>
      <rects>
        <_>
          9 16 3 5 -1.</_>
        <_>
          10 16 1 5 3.</_></rects>
      <tilted>0</tilted></_>
    <_>
      <rects>
        <_>
          9 17 3 4 -1.</_>
        <_>
          10 17 1 4 3.</_></rects>
      <tilted>0</tilted></_>
    <_>
      <rects>
        <_>
          10 0 10 4 -1.</_>
        <_>
          10 2 10 2 2.</_></rects>
      <tilted>0</tilted></_>
    <_>
      <rects>
        <_>
          10 2 14 6 -1.</_>
        <_>
          10 2 7 3 2.</_>
        <_>
          17 5 7 3 2.</_></rects>
      <tilted>0</tilted></_>
    <_>
      <rects>
        <_>
          10 7 3 1 -1.</_>
        <_>
          11 7 1 1 3.</_></rects>
      <tilted>0</tilted></_>
    <_>
      <rects>
        <_>
          10 10 2 1 -1.</_>
        <_>
          11 10 1 1 2.</_></rects>
      <tilted>0</tilted></_>
    <_>
      <rects>
        <_>
          10 16 2 6 -1.</_>
        <_>
          10 19 2 3 2.</_></rects>
      <tilted>0</tilted></_>
    <_>
      <rects>
        <_>
          11 1 10 6 -1.</_>
        <_>
          11 1 5 3 2.</_>
        <_>
          16 4 5 3 2.</_></rects>
      <tilted>0</tilted></_>
    <_>
      <rects>
        <_>
          11 10 6 4 -1.</_>
        <_>
          11 10 3 2 2.</_>
        <_>
          14 12 3 2 2.</_></rects>
      <tilted>0</tilted></_>
    <_>
      <rects>
        <_>
          12 1 1 21 -1.</_>
        <_>
          12 8 1 7 3.</_></rects>
      <tilted>0</tilted></_>
    <_>
      <rects>
        <_>
          12 4 4 9 -1.</_>
        <_>
          14 4 2 9 2.</_></rects>
      <tilted>0</tilted></_>
    <_>
      <rects>
        <_>
          12 9 4 3 -1.</_>
        <_>
          14 9 2 3 2.</_></rects>
      <tilted>0</tilted></_>
    <_>
      <rects>
        <_>
          12 21 12 3 -1.</_>
        <_>
          18 21 6 3 2.</_></rects>
      <tilted>0</tilted></_>
    <_>
      <rects>
        <_>
          14 2 8 6 -1.</_>
        <_>
          14 2 4 3 2.</_>
        <_>
          18 5 4 3 2.</_></rects>
      <tilted>0</tilted></_>
    <_>
      <rects>
        <_>
          14 9 3 3 -1.</_>
        <_>
          14 10 3 1 3.</_></rects>
      <tilted>0</tilted></_>
    <_>
      <rects>
        <_>
          15 8 1 10 -1.</_>
        <_>
          15 13 1 5 2.</_></rects>
      <tilted>0</tilted></_>
    <_>
      <rects>
        <_>
          17 0 4 14 -1.</_>
        <_>
          17 0 2 7 2.</_>
        <_>
          19 7 2 7 2.</_></rects>
      <tilted>0</tilted></_>
    <_>
      <rects>
        <_>
          18 2 6 6 -1.</_>
        <_>
          21 2 3 6 2.</_></rects>
      <tilted>0</tilted></_>
    <_>
      <rects>
        <_>
          18 3 4 10 -1.</_>
        <_>
          18 3 2 5 2.</_>
        <_>
          20 8 2 5 2.</_></rects>
      <tilted>0</tilted></_>
    <_>
      <rects>
        <_>
          18 3 6 17 -1.</_>
        <_>
          21 3 3 17 2.</_></rects>
      <tilted>0</tilted></_>
    <_>
      <rects>
        <_>
          18 8 6 7 -1.</_>
        <_>
          20 8 2 7 3.</_></rects>
      <tilted>0</tilted></_></features></cascade>
</opencv_storage>
