<?xml version="1.0"?>
<opencv_storage>
<cascade>
  <stageType>BOOST</stageType>
  <featureType>HAAR</featureType>
  <height>24</height>
  <width>24</width>
  <stageParams>
    <boostType>GAB</boostType>
    <minHitRate>9.9500000476837158e-01</minHitRate>
    <maxFalseAlarm>5.0000000000000000e-01</maxFalseAlarm>
    <weightTrimRate>9.4999998807907104e-01</weightTrimRate>
    <maxDepth>1</maxDepth>
    <maxWeakCount>100</maxWeakCount></stageParams>
  <featureParams>
    <maxCatCount>0</maxCatCount>
    <featSize>1</featSize>
    <mode>BASIC</mode></featureParams>
  <stageNum>5</stageNum>
  <stages>
    <!-- stage 0 -->
    <_>
      <maxWeakCount>1</maxWeakCount>
      <stageThreshold>1.</stageThreshold>
      <weakClassifiers>
        <_>
          <internalNodes>
            0 -1 0 5.4922200739383698e-02</internalNodes>
          <leafValues>
            -1. 1.</leafValues></_></weakClassifiers></_>
    <!-- stage 1 -->
    <_>
      <maxWeakCount>2</maxWeakCount>
      <stageThreshold>-3.0401590466499329e-01</stageThreshold>
      <weakClassifiers>
        <_>
          <internalNodes>
            0 -1 7 -2.1781424060463905e-02</internalNodes>
          <leafValues>
            6.4705884456634521e-01 -9.8000001907348633e-01</leafValues></_>
        <_>
          <internalNodes>
            0 -1 6 -2.9341034591197968e-02</internalNodes>
          <leafValues>
            7.7645397186279297e-01 -9.5107471942901611e-01</leafValues></_></weakClassifiers></_>
    <!-- stage 2 -->
    <_>
      <maxWeakCount>2</maxWeakCount>
      <stageThreshold>-3.9166006445884705e-01</stageThreshold>
      <weakClassifiers>
        <_>
          <internalNodes>
            0 -1 5 2.9142061248421669e-02</internalNodes>
          <leafValues>
            -9.4285714626312256e-01 1.</leafValues></_>
        <_>
          <internalNodes>
            0 -1 3 4.4936262071132660e-02</internalNodes>
          <leafValues>
            -1. 5.5119711160659790e-01</leafValues></_></weakClassifiers></_>
    <!-- stage 3 -->
    <_>
      <maxWeakCount>2</maxWeakCount>
      <stageThreshold>-3.7371924519538879e-01</stageThreshold>
      <weakClassifiers>
        <_>
          <internalNodes>
            0 -1 1 4.7263525426387787e-02</internalNodes>
          <leafValues>
            -9.2156863212585449e-01 4.6666666865348816e-01</leafValues></_>
        <_>
          <internalNodes>
            0 -1 2 3.4598354250192642e-02</internalNodes>
          <leafValues>
            -8.4038591384887695e-01 7.3784512281417847e-01</leafValues></_></weakClassifiers></_>
    <!-- stage 4 -->
    <_>
      <maxWeakCount>2</maxWeakCount>
      <stageThreshold>-4.5609766244888306e-01</stageThreshold>
      <weakClassifiers>
        <_>
          <internalNodes>
            0 -1 4 2.5365337729454041e-02</internalNodes>
          <leafValues>
            -9.2079210281372070e-01 3.7500000000000000e-01</leafValues></_>
        <_>
          <internalNodes>
            0 -1 8 1.3188358396291733e-02</internalNodes>
          <leafValues>
            -8.3109766244888306e-01 8.3720409870147705e-01</leafValues></_></weakClassifiers></_></stages>
  <features>
    <_>
      <rects>
        <_>
          0 0 10 9 -1.</_>
        <_>
          0 3 10 3 3.</_></rects>
      <tilted>0</tilted></_>
    <_>
      <rects>
        <_>
          0 2 2 18 -1.</_>
        <_>
          0 11 2 9 2.</_></rects>
      <tilted>0</tilted></_>
    <_>
      <rects>
        <_>
          1 8 9 6 -1.</_>
        <_>
          1 10 9 2 3.</_></rects>
      <tilted>0</tilted></_>
    <_>
      <rects>
        <_>
          4 6 15 4 -1.</_>
        <_>
          9 6 5 4 3.</_></rects>
      <tilted>0</tilted></_>
    <_>
      <rects>
        <_>
          5 0 16 2 -1.</_>
        <_>
          5 1 16 1 2.</_></rects>
      <tilted>0</tilted></_>
    <_>
      <rects>
        <_>
          6 8 12 2 -1.</_>
        <_>
          10 8 4 2 3.</_></rects>
      <tilted>0</tilted></_>
    <_>
      <rects>
        <_>
          12 5 9 6 -1.</_>
        <_>
          12 7 9 2 3.</_></rects>
      <tilted>0</tilted></_>
    <_>
      <rects>
        <_>
          16 1 8 3 -1.</_>
        <_>
          20 1 4 3 2.</_></rects>
      <tilted>0</tilted></_>
    <_>
      <rects>
        <_>
          20 18 4 4 -1.</_>
        <_>
          22 18 2 4 2.</_></rects>
      <tilted>0</tilted></_></features></cascade>
</opencv_storage>
